FANN_FLO_2.1
num_layers=3
learning_rate=0.430000
connection_rate=1.000000
network_type=0
learning_momentum=0.000000
training_algorithm=2
train_error_function=1
train_stop_function=0
cascade_output_change_fraction=0.010000
quickprop_decay=-0.000100
quickprop_mu=1.750000
rprop_increase_factor=1.200000
rprop_decrease_factor=0.500000
rprop_delta_min=0.000000
rprop_delta_max=50.000000
rprop_delta_zero=0.100000
cascade_output_stagnation_epochs=12
cascade_candidate_change_fraction=0.010000
cascade_candidate_stagnation_epochs=12
cascade_max_out_epochs=150
cascade_min_out_epochs=50
cascade_max_cand_epochs=150
cascade_min_cand_epochs=50
cascade_num_candidate_groups=2
bit_fail_limit=3.49999999999999977796e-01
cascade_candidate_limit=1.00000000000000000000e+03
cascade_weight_multiplier=4.00000000000000022204e-01
cascade_activation_functions_count=10
cascade_activation_functions=3 5 7 8 10 11 14 15 16 17 
cascade_activation_steepnesses_count=4
cascade_activation_steepnesses=2.50000000000000000000e-01 5.00000000000000000000e-01 7.50000000000000000000e-01 1.00000000000000000000e+00 
layer_sizes=5 51 2 
scale_included=0
neurons (num_inputs, activation_function, activation_steepness)=(0, 0, 0.00000000000000000000e+00) (0, 0, 0.00000000000000000000e+00) (0, 0, 0.00000000000000000000e+00) (0, 0, 0.00000000000000000000e+00) (0, 0, 0.00000000000000000000e+00) (5, 3, 5.00000000000000000000e-01) (5, 3, 5.00000000000000000000e-01) (5, 3, 5.00000000000000000000e-01) (5, 3, 5.00000000000000000000e-01) (5, 3, 5.00000000000000000000e-01) (5, 3, 5.00000000000000000000e-01) (5, 3, 5.00000000000000000000e-01) (5, 3, 5.00000000000000000000e-01) (5, 3, 5.00000000000000000000e-01) (5, 3, 5.00000000000000000000e-01) (5, 3, 5.00000000000000000000e-01) (5, 3, 5.00000000000000000000e-01) (5, 3, 5.00000000000000000000e-01) (5, 3, 5.00000000000000000000e-01) (5, 3, 5.00000000000000000000e-01) (5, 3, 5.00000000000000000000e-01) (5, 3, 5.00000000000000000000e-01) (5, 3, 5.00000000000000000000e-01) (5, 3, 5.00000000000000000000e-01) (5, 3, 5.00000000000000000000e-01) (5, 3, 5.00000000000000000000e-01) (5, 3, 5.00000000000000000000e-01) (5, 3, 5.00000000000000000000e-01) (5, 3, 5.00000000000000000000e-01) (5, 3, 5.00000000000000000000e-01) (5, 3, 5.00000000000000000000e-01) (5, 3, 5.00000000000000000000e-01) (5, 3, 5.00000000000000000000e-01) (5, 3, 5.00000000000000000000e-01) (5, 3, 5.00000000000000000000e-01) (5, 3, 5.00000000000000000000e-01) (5, 3, 5.00000000000000000000e-01) (5, 3, 5.00000000000000000000e-01) (5, 3, 5.00000000000000000000e-01) (5, 3, 5.00000000000000000000e-01) (5, 3, 5.00000000000000000000e-01) (5, 3, 5.00000000000000000000e-01) (5, 3, 5.00000000000000000000e-01) (5, 3, 5.00000000000000000000e-01) (5, 3, 5.00000000000000000000e-01) (5, 3, 5.00000000000000000000e-01) (5, 3, 5.00000000000000000000e-01) (5, 3, 5.00000000000000000000e-01) (5, 3, 5.00000000000000000000e-01) (5, 3, 5.00000000000000000000e-01) (5, 3, 5.00000000000000000000e-01) (5, 3, 5.00000000000000000000e-01) (5, 3, 5.00000000000000000000e-01) (5, 3, 5.00000000000000000000e-01) (5, 3, 5.00000000000000000000e-01) (0, 3, 0.00000000000000000000e+00) (51, 3, 5.00000000000000000000e-01) (0, 3, 0.00000000000000000000e+00) 
connections (connected_to_neuron, weight)=(0, 4.54277356067489108682e+02) (1, 1.58868350435791350073e+00) (2, 9.26418287248107048981e+02) (3, 1.07349466956251893279e+00) (4, -6.44686438371910242040e+01) (0, 1.50000000000000000000e+03) (1, 1.08812544902061869578e+00) (2, 8.64776628896536635693e+02) (3, 9.15967184145485613378e-01) (4, 9.78114816979673840081e-02) (0, -6.72093958158930782076e+00) (1, -5.89647956559652547393e-02) (2, -5.05896790003474428055e-01) (3, 2.07542483120570581123e-01) (4, 1.97101231454358497786e+02) (0, 1.50000000000000000000e+03) (1, 1.28339054447273070991e+00) (2, 8.51478378008966615198e+02) (3, -2.94209255701975813668e-01) (4, -9.54033187360417755940e-01) (0, 1.50000000000000000000e+03) (1, 1.40749275437766918628e+00) (2, 8.64138551674606446795e+02) (3, 1.19097307697733345577e+00) (4, -8.43014185800454507458e-01) (0, 1.50000000000000000000e+03) (1, 1.06028935103048760347e+00) (2, 8.59992931204214642094e+02) (3, 2.45313084777856571517e-01) (4, -2.63179440197564284976e-01) (0, 1.50000000000000000000e+03) (1, 1.67215890844560055584e+00) (2, 8.57965842068662936981e+02) (3, 2.08795803625616255284e-01) (4, -1.12937208735460314912e+00) (0, 1.50000000000000000000e+03) (1, 1.50735711526769744495e+00) (2, 8.57876762679979378845e+02) (3, 2.58401543854928250621e-01) (4, -2.05368026450437474173e-01) (0, -1.50000000000000000000e+03) (1, -7.58645600049710711055e-01) (2, -3.69162889076330088756e+02) (3, -2.36017869356717258089e-01) (4, 6.88212116979061816480e-01) (0, 1.06747540911231340033e+01) (1, -3.87950212744349376415e-01) (2, 1.61418239522504047834e+00) (3, -4.39882750936622379800e-01) (4, -6.43857386311026971271e+01) (0, -5.51195545007278511207e+01) (1, 2.82083358950027951462e-01) (2, -8.62471332717752448005e-01) (3, 2.89050882532668890201e-03) (4, 5.76383156499179676757e+02) (0, -3.00956075287050417444e+00) (1, 3.06027043124118935946e-01) (2, -7.77817679327279853929e-01) (3, 5.50756467752523681813e-02) (4, -7.82328037550176169646e+00) (0, 9.20827437796447611618e+02) (1, 9.19417380363177327851e-01) (2, 8.52915865816363066187e+02) (3, 3.65309146565243492155e-01) (4, 3.04670318520143867946e-01) (0, 1.50000000000000000000e+03) (1, 8.00212417509429396745e-01) (2, 8.79619089673802704965e+02) (3, 7.36394729008043813501e-01) (4, -9.56503524931874848924e-02) (0, 1.50000000000000000000e+03) (1, 1.25117626539642268213e+00) (2, 8.58208597730955602856e+02) (3, 6.06405261911965531851e-01) (4, -2.98233390567206047006e-01) (0, -1.74903109348708731829e+01) (1, 2.93594152206033964791e-01) (2, -1.68108386809775495196e-01) (3, -1.97936530346542710612e-01) (4, 3.48482147009633607126e+01) (0, 1.50000000000000000000e+03) (1, 2.29174617715381634397e+00) (2, 8.52763401915961253508e+02) (3, 1.00306440534495289185e+00) (4, -1.69791866081625613560e+02) (0, 4.02490165488406077543e+01) (1, 1.45034072802201985386e-01) (2, -3.06097455465011947240e+00) (3, -5.87760222938730619857e-02) (4, 8.58776901941205039748e+00) (0, 1.50000000000000000000e+03) (1, 1.15817232931344138436e+00) (2, 8.64997968718352126416e+02) (3, 4.74042798866593451113e-01) (4, 3.32655272619291397795e-01) (0, 1.50000000000000000000e+03) (1, 1.97197513792687684209e+00) (2, 8.64900357350649642285e+02) (3, 7.33822610356435700574e-01) (4, -5.94587238450841160109e-01) (0, 1.50000000000000000000e+03) (1, 2.16682099316290610602e+00) (2, 8.64473583802523421582e+02) (3, 1.35582404968937297873e+00) (4, 1.69793160124398850863e-01) (0, -2.61615623626748750041e+00) (1, -9.53441123685920821629e-02) (2, -2.08786713002506119086e-01) (3, 6.44291327991090012617e-01) (4, -3.29371666176632826861e+00) (0, 1.50000000000000000000e+03) (1, 1.68033070524430683257e+00) (2, 8.57646577746143634613e+02) (3, 8.50107270319496510780e-01) (4, -9.06016187342411960515e-01) (0, 1.50000000000000000000e+03) (1, 1.83501894434188517202e+00) (2, 8.53701423423223218379e+02) (3, 6.51223379213832775925e-01) (4, -1.67683204175149230819e-01) (0, -3.19330045639590593964e+01) (1, 7.31657445381140192353e-01) (2, 1.57451196844036900302e+00) (3, 6.02332995280338789890e-01) (4, -2.99126741435309533301e+01) (0, -1.33044783891619681526e+03) (1, 4.91668322705134219763e-01) (2, 6.06428427913887091449e+00) (3, 3.59780675164486640760e-01) (4, 2.88685760027592017707e+01) (0, 2.33924203862556566946e+02) (1, 1.23543107880660918418e+00) (2, 9.20006440711503273633e+02) (3, 1.46971498128467881195e-01) (4, -6.87090800480607444278e-01) (0, -4.19110647500225663720e+00) (1, 1.08218897299350979430e-02) (2, -6.85915521541324735288e-01) (3, 6.46078908301665588709e-01) (4, 3.67174899522486297698e+00) (0, 2.14779318648333969577e+02) (1, 1.48360667526170630914e+00) (2, 8.48692348313894967760e+02) (3, 9.05833156204947531620e-01) (4, -3.42470339141001459127e-02) (0, 1.50000000000000000000e+03) (1, 1.05006808172049170835e+00) (2, 8.54136199388368254404e+02) (3, 3.60002825718789776221e-01) (4, 3.23856621646940290304e-01) (0, 7.41311140041214684970e+02) (1, 7.31824086586241540076e-01) (2, 9.22045092535849022397e+01) (3, 2.46236912406861713221e-01) (4, -5.30257751280796219007e-01) (0, -5.38972322543112802862e+00) (1, 3.24368774917516144995e-01) (2, -6.02782689482880829068e-01) (3, -1.33102338243995116374e-01) (4, 2.54374284485689834412e+01) (0, -1.50000000000000000000e+03) (1, -1.75541579008060971701e-01) (2, 2.92912721181587709651e+00) (3, 1.79311666000290692580e-01) (4, -3.19312764422154005128e-01) (0, 1.50000000000000000000e+03) (1, 2.23867844555548556329e+00) (2, 8.64620226815285491284e+02) (3, 1.33113079903324460496e+00) (4, -4.26456524174172527109e-03) (0, -1.99556260023788176738e+01) (1, -7.11541764533467846476e-01) (2, 8.01760801315846594051e-01) (3, -3.86309990034142736182e-01) (4, 1.17771018742043281691e+02) (0, 1.08490771912875576533e+01) (1, -9.90942141816100741103e-02) (2, -1.70615692014943420851e+00) (3, 3.65193299056490727761e-01) (4, -2.67104170706059811380e+01) (0, 1.50000000000000000000e+03) (1, 1.70006234606004147381e+00) (2, 8.58149578094950015839e+02) (3, 3.08782803852586829052e-01) (4, 2.52917531182603849693e-01) (0, 1.50000000000000000000e+03) (1, 2.50963925335578652565e+00) (2, 8.64773540839495467480e+02) (3, 1.29016983149250474838e+00) (4, -1.55771525633741331207e-01) (0, -3.93135138101170644731e+00) (1, 4.94013654370019317241e-01) (2, -4.13742077329583679557e-01) (3, 2.44704269939437744907e-03) (4, 1.96473277689021550430e+01) (0, -4.79454785994261989401e+00) (1, 7.73761015101166876873e-02) (2, -1.13845473192780177740e+00) (3, 6.80453754353613216033e-02) (4, 1.48537988270238621169e+01) (0, -7.78423243483669047293e+00) (1, 2.92028371122456831266e-01) (2, -1.31144815331480213416e+00) (3, 6.76083850451398571391e-02) (4, 3.29940369776377835365e+01) (0, -3.90601693713955921972e-01) (1, 2.53661935725405796038e-02) (2, -6.42468479453356111630e-02) (3, -2.31890481418968695537e-02) (4, 3.73910634017201060075e+00) (0, 1.50000000000000000000e+03) (1, 1.24331239016746653014e+00) (2, 8.64426099324025813075e+02) (3, 8.96678187210595334378e-01) (4, -4.55988884238865133103e-01) (0, -1.16251030234898600213e+01) (1, 4.64402743334330209146e-02) (2, -1.33480481448251042664e+00) (3, 6.30925055857752159483e-01) (4, 1.26738213379044296403e+02) (0, -4.19951978753750676532e+00) (1, 1.78266356619882382351e-01) (2, -6.72907600995128141186e-01) (3, 1.10210095721943249214e-01) (4, 3.38843476850194136318e+01) (0, 4.06629164825322504839e+02) (1, 1.92465978150660532719e+00) (2, 1.20058437093852285216e+03) (3, 2.64404485818565793132e-01) (4, 1.13203589541936122664e+00) (0, -1.76964768713709617032e+01) (1, 8.61343360047698985982e-02) (2, 8.82169218127173970778e-01) (3, 3.01117537645778143851e-01) (4, 3.35640084620898960566e+02) (0, 1.50000000000000000000e+03) (1, 1.46628523773636154637e+00) (2, 8.54435752686036607884e+02) (3, 3.90016424496201719041e-01) (4, -8.38778503068927427933e-01) (0, -3.29937496123859475006e+00) (1, 1.88222602954477680193e-01) (2, -7.92011257671194512930e-01) (3, -9.60797668884255523514e-02) (4, 9.19514054773313560531e+00) (0, 5.08169822740273048112e+02) (1, 5.61015541847482368532e-01) (2, -1.75790483087292059849e-01) (3, 1.24376966258860854886e+00) (4, 3.71438035840381530761e+00) (5, -2.96611673552502168316e-02) (6, 1.32312383575700048821e-01) (7, -3.42975869721640791443e-01) (8, 2.97516600854985692470e-02) (9, 1.63701859473212724128e-01) (10, 7.94656992604553485786e-04) (11, 2.97688600053163887615e-01) (12, 1.28150757305731249902e-01) (13, -1.45000000000000000000e+03) (14, -9.02132064621115947745e-01) (15, -2.23244216408916007488e-01) (16, -8.82555260364386695571e-01) (17, -1.35509827578601995540e-02) (18, 4.52690754066354894558e-01) (19, 2.89421784168211425337e-02) (20, 7.31031526252076679917e-02) (21, 1.06219288668367606299e-01) (22, -4.29219595223151381691e-02) (23, 4.92167253554557149187e-01) (24, 9.15851854517672758771e-02) (25, 3.73996459677434847646e-02) (26, -8.95208783709809829965e-01) (27, 5.21183308591190663783e-01) (28, 3.62589054001036414920e-01) (29, -4.51555751919579195786e-01) (30, -5.75228366205083885276e-02) (31, -3.44030515134303369051e-02) (32, -9.04084339646394008483e-01) (33, -2.37958765790220981573e-02) (34, 5.00607374701841564835e-02) (35, -1.35067202732589257408e-02) (36, -1.28310092144470283548e-01) (37, -1.45000000000000000000e+03) (38, 1.43304448004461411348e-02) (39, -3.29923942135959546995e-01) (40, -3.38077865556886680842e-01) (41, 5.48402872009520536700e-01) (42, 1.11360828753235378830e-02) (43, -4.74592523030425317287e-01) (44, -2.97434570960590616284e-01) (45, 2.42062248253505640783e-01) (46, -3.06169380339539998204e+00) (47, 4.63584337224724127302e-02) (48, -5.29640214913383644557e-01) (49, 8.54972347420688061348e-01) (50, -5.95946476947821004999e-02) (51, -2.48049436845486748204e-01) (52, 2.91933551447278782920e-01) (53, 4.12357804232146185619e-01) (54, 4.17145336789540924216e-02) (55, -1.93288208973812075664e-01) 
